<?xml version="1.0"?>
<opencv_storage>
<cascade>
  <stageType>BOOST</stageType>
  <featureType>HAAR</featureType>
  <height>24</height>
  <width>24</width>
  <stageParams>
    <boostType>GAB</boostType>
    <minHitRate>9.9900001287460327e-01</minHitRate>
    <maxFalseAlarm>5.0000000000000000e-01</maxFalseAlarm>
    <weightTrimRate>9.4999999999999996e-01</weightTrimRate>
    <maxDepth>1</maxDepth>
    <maxWeakCount>100</maxWeakCount></stageParams>
  <featureParams>
    <maxCatCount>0</maxCatCount>
    <featSize>1</featSize>
    <mode>ALL</mode></featureParams>
  <stageNum>11</stageNum>
  <stages>
    <!-- stage 0 -->
    <_>
      <maxWeakCount>4</maxWeakCount>
      <stageThreshold>-1.1069426536560059e+00</stageThreshold>
      <weakClassifiers>
        <_>
          <internalNodes>
            0 -1 18 -2.2703770548105240e-02</internalNodes>
          <leafValues>
            8.0091416835784912e-01 -9.2612856626510620e-01</leafValues></_>
        <_>
          <internalNodes>
            0 -1 65 -3.3209365792572498e-03</internalNodes>
          <leafValues>
            5.5780386924743652e-01 -8.2087016105651855e-01</leafValues></_>
        <_>
          <internalNodes>
            0 -1 24 -1.8968759104609489e-03</internalNodes>
          <leafValues>
            3.2847386598587036e-01 -9.4253420829772949e-01</leafValues></_>
        <_>
          <internalNodes>
            0 -1 119 -4.8690880066715181e-04</internalNodes>
          <leafValues>
            -8.6281806230545044e-01 3.1158220767974854e-01</leafValues></_></weakClassifiers></_>
    <!-- stage 1 -->
    <_>
      <maxWeakCount>7</maxWeakCount>
      <stageThreshold>-1.2494045495986938e+00</stageThreshold>
      <weakClassifiers>
        <_>
          <internalNodes>
            0 -1 17 -1.3609671965241432e-02</internalNodes>
          <leafValues>
            6.4421737194061279e-01 -8.9031076431274414e-01</leafValues></_>
        <_>
          <internalNodes>
            0 -1 0 -6.8040668964385986e-01</internalNodes>
          <leafValues>
            7.3417508602142334e-01 -5.3982347249984741e-01</leafValues></_>
        <_>
          <internalNodes>
            0 -1 105 -6.1298604123294353e-04</internalNodes>
          <leafValues>
            4.1274824738502502e-01 -8.2952773571014404e-01</leafValues></_>
        <_>
          <internalNodes>
            0 -1 98 2.6134101790376008e-04</internalNodes>
          <leafValues>
            2.7910038828849792e-01 -9.4990903139114380e-01</leafValues></_>
        <_>
          <internalNodes>
            0 -1 98 -7.5304025085642934e-04</internalNodes>
          <leafValues>
            -9.1802912950515747e-01 2.2092320024967194e-01</leafValues></_>
        <_>
          <internalNodes>
            0 -1 14 -1.4780331403017044e-03</internalNodes>
          <leafValues>
            -8.0508667230606079e-01 2.4346742033958435e-01</leafValues></_>
        <_>
          <internalNodes>
            0 -1 31 1.4013820327818394e-04</internalNodes>
          <leafValues>
            2.6676645874977112e-01 -8.6793142557144165e-01</leafValues></_></weakClassifiers></_>
    <!-- stage 2 -->
    <_>
      <maxWeakCount>7</maxWeakCount>
      <stageThreshold>-1.0545759201049805e+00</stageThreshold>
      <weakClassifiers>
        <_>
          <internalNodes>
            0 -1 48 -9.8941396572627127e-05</internalNodes>
          <leafValues>
            5.7212173938751221e-01 -9.1685914993286133e-01</leafValues></_>
        <_>
          <internalNodes>
            0 -1 4 -1.0004855692386627e-01</internalNodes>
          <leafValues>
            6.3436228036880493e-01 -5.8594179153442383e-01</leafValues></_>
        <_>
          <internalNodes>
            0 -1 40 -5.3753453539684415e-04</internalNodes>
          <leafValues>
            4.0052339434623718e-01 -9.4657629728317261e-01</leafValues></_>
        <_>
          <internalNodes>
            0 -1 46 1.3275499804876745e-04</internalNodes>
          <leafValues>
            1.7944519221782684e-01 -9.5436716079711914e-01</leafValues></_>
        <_>
          <internalNodes>
            0 -1 27 1.4602392911911011e-04</internalNodes>
          <leafValues>
            -7.1166902780532837e-01 3.9133706688880920e-01</leafValues></_>
        <_>
          <internalNodes>
            0 -1 54 1.1652610555756837e-04</internalNodes>
          <leafValues>
            2.5032591819763184e-01 -9.0984147787094116e-01</leafValues></_>
        <_>
          <internalNodes>
            0 -1 54 -1.0577333159744740e-03</internalNodes>
          <leafValues>
            -8.9070457220077515e-01 3.0133023858070374e-01</leafValues></_></weakClassifiers></_>
    <!-- stage 3 -->
    <_>
      <maxWeakCount>6</maxWeakCount>
      <stageThreshold>-1.4450920820236206e+00</stageThreshold>
      <weakClassifiers>
        <_>
          <internalNodes>
            0 -1 38 -3.8527330616489053e-04</internalNodes>
          <leafValues>
            6.1379307508468628e-01 -8.2857143878936768e-01</leafValues></_>
        <_>
          <internalNodes>
            0 -1 63 1.4377890620380640e-03</internalNodes>
          <leafValues>
            -8.0175864696502686e-01 3.5289424657821655e-01</leafValues></_>
        <_>
          <internalNodes>
            0 -1 55 -4.4584045099327341e-05</internalNodes>
          <leafValues>
            2.7188310027122498e-01 -9.3305122852325439e-01</leafValues></_>
        <_>
          <internalNodes>
            0 -1 76 -7.7411381062120199e-04</internalNodes>
          <leafValues>
            -9.3493038415908813e-01 2.4760489165782928e-01</leafValues></_>
        <_>
          <internalNodes>
            0 -1 110 -1.2110744137316942e-03</internalNodes>
          <leafValues>
            3.9766582846641541e-01 -6.3203692436218262e-01</leafValues></_>
        <_>
          <internalNodes>
            0 -1 68 -3.2345799263566732e-04</internalNodes>
          <leafValues>
            2.1318916976451874e-01 -9.6667444705963135e-01</leafValues></_></weakClassifiers></_>
    <!-- stage 4 -->
    <_>
      <maxWeakCount>8</maxWeakCount>
      <stageThreshold>-1.6196213960647583e+00</stageThreshold>
      <weakClassifiers>
        <_>
          <internalNodes>
            0 -1 67 -8.0904699862003326e-03</internalNodes>
          <leafValues>
            -8.1132078170776367e-01 5.7894736528396606e-01</leafValues></_>
        <_>
          <internalNodes>
            0 -1 45 -6.7484693136066198e-04</internalNodes>
          <leafValues>
            3.1211146712303162e-01 -9.6890580654144287e-01</leafValues></_>
        <_>
          <internalNodes>
            0 -1 5 -2.1106150746345520e-01</internalNodes>
          <leafValues>
            6.7069280147552490e-01 -4.3051141500473022e-01</leafValues></_>
        <_>
          <internalNodes>
            0 -1 99 -2.4663446311024018e-05</internalNodes>
          <leafValues>
            3.0687233805656433e-01 -8.5916966199874878e-01</leafValues></_>
        <_>
          <internalNodes>
            0 -1 25 5.3406642109621316e-05</internalNodes>
          <leafValues>
            -6.4129018783569336e-01 3.2063239812850952e-01</leafValues></_>
        <_>
          <internalNodes>
            0 -1 58 -1.9593457691371441e-03</internalNodes>
          <leafValues>
            -9.1072416305541992e-01 2.3724082112312317e-01</leafValues></_>
        <_>
          <internalNodes>
            0 -1 28 -1.1812449665740132e-03</internalNodes>
          <leafValues>
            1.9131745398044586e-01 -8.3571219444274902e-01</leafValues></_>
        <_>
          <internalNodes>
            0 -1 92 -3.1858636066317558e-04</internalNodes>
          <leafValues>
            1.9691565632820129e-01 -8.5821568965911865e-01</leafValues></_></weakClassifiers></_>
    <!-- stage 5 -->
    <_>
      <maxWeakCount>11</maxWeakCount>
      <stageThreshold>-1.4073179960250854e+00</stageThreshold>
      <weakClassifiers>
        <_>
          <internalNodes>
            0 -1 104 -1.3950426364317536e-04</internalNodes>
          <leafValues>
            6.4428496360778809e-01 -4.7663551568984985e-01</leafValues></_>
        <_>
          <internalNodes>
            0 -1 2 -1.4027613401412964e-01</internalNodes>
          <leafValues>
            5.5057698488235474e-01 -4.6237054467201233e-01</leafValues></_>
        <_>
          <internalNodes>
            0 -1 113 -3.7381565198302269e-04</internalNodes>
          <leafValues>
            4.7804522514343262e-01 -4.9311512708663940e-01</leafValues></_>
        <_>
          <internalNodes>
            0 -1 10 -9.9844601936638355e-04</internalNodes>
          <leafValues>
            2.6062923669815063e-01 -8.6356621980667114e-01</leafValues></_>
        <_>
          <internalNodes>
            0 -1 90 4.2255554581061006e-04</internalNodes>
          <leafValues>
            -8.4184741973876953e-01 1.9999510049819946e-01</leafValues></_>
        <_>
          <internalNodes>
            0 -1 56 -1.1741762136807665e-05</internalNodes>
          <leafValues>
            2.1861957013607025e-01 -7.5185245275497437e-01</leafValues></_>
        <_>
          <internalNodes>
            0 -1 91 -2.2857441217638552e-04</internalNodes>
          <leafValues>
            3.1457665562629700e-01 -5.2229565382003784e-01</leafValues></_>
        <_>
          <internalNodes>
            0 -1 95 -2.6016868650913239e-04</internalNodes>
          <leafValues>
            -8.0314803123474121e-01 1.9392113387584686e-01</leafValues></_>
        <_>
          <internalNodes>
            0 -1 75 1.0299620043952018e-04</internalNodes>
          <leafValues>
            2.1030731499195099e-01 -7.7841752767562866e-01</leafValues></_>
        <_>
          <internalNodes>
            0 -1 77 -4.3577889300649986e-05</internalNodes>
          <leafValues>
            1.9851231575012207e-01 -7.0732992887496948e-01</leafValues></_>
        <_>
          <internalNodes>
            0 -1 33 8.6410022049676627e-05</internalNodes>
          <leafValues>
            -4.4348075985908508e-01 3.3345112204551697e-01</leafValues></_></weakClassifiers></_>
    <!-- stage 6 -->
    <_>
      <maxWeakCount>12</maxWeakCount>
      <stageThreshold>-1.4490628242492676e+00</stageThreshold>
      <weakClassifiers>
        <_>
          <internalNodes>
            0 -1 52 6.7556728026829660e-05</internalNodes>
          <leafValues>
            -4.5551130175590515e-01 6.3841807842254639e-01</leafValues></_>
        <_>
          <internalNodes>
            0 -1 64 -4.7552667092531919e-04</internalNodes>
          <leafValues>
            3.9379161596298218e-01 -6.5206563472747803e-01</leafValues></_>
        <_>
          <internalNodes>
            0 -1 72 -1.6771878581494093e-03</internalNodes>
          <leafValues>
            2.5912302732467651e-01 -9.0035134553909302e-01</leafValues></_>
        <_>
          <internalNodes>
            0 -1 1 -2.6644697785377502e-01</internalNodes>
          <leafValues>
            5.3963077068328857e-01 -3.8140422105789185e-01</leafValues></_>
        <_>
          <internalNodes>
            0 -1 78 1.4618581917602569e-04</internalNodes>
          <leafValues>
            2.1401812136173248e-01 -8.7775063514709473e-01</leafValues></_>
        <_>
          <internalNodes>
            0 -1 103 -6.3739425968378782e-04</internalNodes>
          <leafValues>
            2.4204741418361664e-01 -6.8123668432235718e-01</leafValues></_>
        <_>
          <internalNodes>
            0 -1 80 -1.8471341172698885e-04</internalNodes>
          <leafValues>
            1.9170543551445007e-01 -7.8226679563522339e-01</leafValues></_>
        <_>
          <internalNodes>
            0 -1 86 -2.2158616047818214e-05</internalNodes>
          <leafValues>
            2.7821668982505798e-01 -5.8553326129913330e-01</leafValues></_>
        <_>
          <internalNodes>
            0 -1 12 1.4440245286095887e-04</internalNodes>
          <leafValues>
            -4.6164143085479736e-01 3.4006226062774658e-01</leafValues></_>
        <_>
          <internalNodes>
            0 -1 97 -2.7715768665075302e-03</internalNodes>
          <leafValues>
            -7.2914516925811768e-01 2.4540777504444122e-01</leafValues></_>
        <_>
          <internalNodes>
            0 -1 85 4.3426355114206672e-04</internalNodes>
          <leafValues>
            -8.1533145904541016e-01 1.3434103131294250e-01</leafValues></_>
        <_>
          <internalNodes>
            0 -1 74 1.0452425340190530e-04</internalNodes>
          <leafValues>
            1.5004953742027283e-01 -7.5237721204757690e-01</leafValues></_></weakClassifiers></_>
    <!-- stage 7 -->
    <_>
      <maxWeakCount>16</maxWeakCount>
      <stageThreshold>-1.4120888710021973e+00</stageThreshold>
      <weakClassifiers>
        <_>
          <internalNodes>
            0 -1 69 -6.1738258227705956e-03</internalNodes>
          <leafValues>
            -6.7328917980194092e-01 5.3627055883407593e-01</leafValues></_>
        <_>
          <internalNodes>
            0 -1 53 -5.5563796195201576e-05</internalNodes>
          <leafValues>
            2.7423304319381714e-01 -8.2451617717742920e-01</leafValues></_>
        <_>
          <internalNodes>
            0 -1 29 5.8657664339989424e-05</internalNodes>
          <leafValues>
            -5.1959407329559326e-01 3.7069478631019592e-01</leafValues></_>
        <_>
          <internalNodes>
            0 -1 3 -1.1627710610628128e-01</internalNodes>
          <leafValues>
            4.7462242841720581e-01 -3.9489847421646118e-01</leafValues></_>
        <_>
          <internalNodes>
            0 -1 49 -1.3139436487108469e-04</internalNodes>
          <leafValues>
            2.3310703039169312e-01 -7.4244868755340576e-01</leafValues></_>
        <_>
          <internalNodes>
            0 -1 115 -7.1470611146651208e-05</internalNodes>
          <leafValues>
            3.6448234319686890e-01 -4.6725413203239441e-01</leafValues></_>
        <_>
          <internalNodes>
            0 -1 22 1.1321310885250568e-03</internalNodes>
          <leafValues>
            1.9061192870140076e-01 -8.7592530250549316e-01</leafValues></_>
        <_>
          <internalNodes>
            0 -1 34 5.2222007070668042e-05</internalNodes>
          <leafValues>
            1.4134705066680908e-01 -7.1872639656066895e-01</leafValues></_>
        <_>
          <internalNodes>
            0 -1 101 8.3932507550343871e-04</internalNodes>
          <leafValues>
            -6.4033061265945435e-01 1.6339284181594849e-01</leafValues></_>
        <_>
          <internalNodes>
            0 -1 35 -2.9099127277731895e-03</internalNodes>
          <leafValues>
            -8.0887585878372192e-01 1.7390891909599304e-01</leafValues></_>
        <_>
          <internalNodes>
            0 -1 111 -4.3094129068776965e-04</internalNodes>
          <leafValues>
            2.2374175488948822e-01 -5.3843122720718384e-01</leafValues></_>
        <_>
          <internalNodes>
            0 -1 93 -1.4275604626163840e-03</internalNodes>
          <leafValues>
            1.3699604570865631e-01 -9.0138775110244751e-01</leafValues></_>
        <_>
          <internalNodes>
            0 -1 109 5.2363909780979156e-02</internalNodes>
          <leafValues>
            2.2263501584529877e-01 -5.7447654008865356e-01</leafValues></_>
        <_>
          <internalNodes>
            0 -1 8 -1.5743777621537447e-03</internalNodes>
          <leafValues>
            4.2019259929656982e-01 -3.0857792496681213e-01</leafValues></_>
        <_>
          <internalNodes>
            0 -1 118 -1.8853494839277118e-04</internalNodes>
          <leafValues>
            4.2885071039199829e-01 -3.3670672774314880e-01</leafValues></_>
        <_>
          <internalNodes>
            0 -1 61 1.6088357369881123e-04</internalNodes>
          <leafValues>
            -3.3014112710952759e-01 3.5858362913131714e-01</leafValues></_></weakClassifiers></_>
    <!-- stage 8 -->
    <_>
      <maxWeakCount>15</maxWeakCount>
      <stageThreshold>-1.6064869165420532e+00</stageThreshold>
      <weakClassifiers>
        <_>
          <internalNodes>
            0 -1 60 -1.1006422573700547e-04</internalNodes>
          <leafValues>
            5.6450134515762329e-01 -6.4980542659759521e-01</leafValues></_>
        <_>
          <internalNodes>
            0 -1 106 -8.1715479609556496e-05</internalNodes>
          <leafValues>
            3.8059398531913757e-01 -5.6262266635894775e-01</leafValues></_>
        <_>
          <internalNodes>
            0 -1 102 3.6069422960281372e-02</internalNodes>
          <leafValues>
            -4.5194876194000244e-01 4.0271896123886108e-01</leafValues></_>
        <_>
          <internalNodes>
            0 -1 57 8.2361657405272126e-05</internalNodes>
          <leafValues>
            1.7584888637065887e-01 -8.2874280214309692e-01</leafValues></_>
        <_>
          <internalNodes>
            0 -1 112 -1.2378525570966303e-04</internalNodes>
          <leafValues>
            2.8935608267784119e-01 -5.3374820947647095e-01</leafValues></_>
        <_>
          <internalNodes>
            0 -1 16 -2.5236839428544044e-03</internalNodes>
          <leafValues>
            2.3719772696495056e-01 -5.9833228588104248e-01</leafValues></_>
        <_>
          <internalNodes>
            0 -1 44 -4.5955192763358355e-04</internalNodes>
          <leafValues>
            1.4902237057685852e-01 -8.8955378532409668e-01</leafValues></_>
        <_>
          <internalNodes>
            0 -1 107 -2.7631056582322344e-05</internalNodes>
          <leafValues>
            1.4423616230487823e-01 -7.9555797576904297e-01</leafValues></_>
        <_>
          <internalNodes>
            0 -1 54 8.8285138190258294e-05</internalNodes>
          <leafValues>
            1.4875046908855438e-01 -8.5529375076293945e-01</leafValues></_>
        <_>
          <internalNodes>
            0 -1 41 3.3032740466296673e-03</internalNodes>
          <leafValues>
            1.4337329566478729e-01 -6.6405850648880005e-01</leafValues></_>
        <_>
          <internalNodes>
            0 -1 59 3.0726969271199778e-05</internalNodes>
          <leafValues>
            -4.0822973847389221e-01 2.7835795283317566e-01</leafValues></_>
        <_>
          <internalNodes>
            0 -1 13 -4.7886073589324951e-02</internalNodes>
          <leafValues>
            4.5942574739456177e-01 -2.8862783312797546e-01</leafValues></_>
        <_>
          <internalNodes>
            0 -1 43 -2.8756976826116443e-04</internalNodes>
          <leafValues>
            -3.9940488338470459e-01 3.4374457597732544e-01</leafValues></_>
        <_>
          <internalNodes>
            0 -1 83 3.5207846667617559e-04</internalNodes>
          <leafValues>
            -3.5956537723541260e-01 3.3531296253204346e-01</leafValues></_>
        <_>
          <internalNodes>
            0 -1 94 -1.3084289385005832e-03</internalNodes>
          <leafValues>
            1.9864378869533539e-01 -5.8554840087890625e-01</leafValues></_></weakClassifiers></_>
    <!-- stage 9 -->
    <_>
      <maxWeakCount>17</maxWeakCount>
      <stageThreshold>-1.4796172380447388e+00</stageThreshold>
      <weakClassifiers>
        <_>
          <internalNodes>
            0 -1 100 -5.9835387219209224e-05</internalNodes>
          <leafValues>
            5.2554422616958618e-01 -6.3028955459594727e-01</leafValues></_>
        <_>
          <internalNodes>
            0 -1 82 7.4638082878664136e-05</internalNodes>
          <leafValues>
            -5.3254574537277222e-01 3.6072096228599548e-01</leafValues></_>
        <_>
          <internalNodes>
            0 -1 15 -1.7933973576873541e-03</internalNodes>
          <leafValues>
            2.6115688681602478e-01 -6.8589711189270020e-01</leafValues></_>
        <_>
          <internalNodes>
            0 -1 26 2.0061549730598927e-04</internalNodes>
          <leafValues>
            -4.8859775066375732e-01 2.6543635129928589e-01</leafValues></_>
        <_>
          <internalNodes>
            0 -1 116 -3.4537317696958780e-04</internalNodes>
          <leafValues>
            2.7402067184448242e-01 -5.5620670318603516e-01</leafValues></_>
        <_>
          <internalNodes>
            0 -1 6 -4.3580092489719391e-02</internalNodes>
          <leafValues>
            2.9318177700042725e-01 -4.9224856495857239e-01</leafValues></_>
        <_>
          <internalNodes>
            0 -1 114 -2.8161168302176520e-05</internalNodes>
          <leafValues>
            1.8374024331569672e-01 -6.7340582609176636e-01</leafValues></_>
        <_>
          <internalNodes>
            0 -1 50 -3.1305462471209466e-05</internalNodes>
          <leafValues>
            2.1039538085460663e-01 -5.7345139980316162e-01</leafValues></_>
        <_>
          <internalNodes>
            0 -1 39 -1.0285547003149986e-02</internalNodes>
          <leafValues>
            -9.3087154626846313e-01 1.1882924288511276e-01</leafValues></_>
        <_>
          <internalNodes>
            0 -1 51 2.5988078050431795e-05</internalNodes>
          <leafValues>
            1.5133729577064514e-01 -6.5963572263717651e-01</leafValues></_>
        <_>
          <internalNodes>
            0 -1 32 -6.7342380061745644e-03</internalNodes>
          <leafValues>
            2.9150688648223877e-01 -3.8146018981933594e-01</leafValues></_>
        <_>
          <internalNodes>
            0 -1 21 -3.7075422005727887e-04</internalNodes>
          <leafValues>
            1.4883896708488464e-01 -7.8128194808959961e-01</leafValues></_>
        <_>
          <internalNodes>
            0 -1 120 -1.1797794140875340e-03</internalNodes>
          <leafValues>
            3.9013883471488953e-01 -2.8000479936599731e-01</leafValues></_>
        <_>
          <internalNodes>
            0 -1 11 2.2753509692847729e-03</internalNodes>
          <leafValues>
            -2.8598707914352417e-01 4.3809121847152710e-01</leafValues></_>
        <_>
          <internalNodes>
            0 -1 71 5.0699440762400627e-03</internalNodes>
          <leafValues>
            1.6071677207946777e-01 -8.9183461666107178e-01</leafValues></_>
        <_>
          <internalNodes>
            0 -1 88 -2.5644880952313542e-04</internalNodes>
          <leafValues>
            -7.9071509838104248e-01 1.0588160902261734e-01</leafValues></_>
        <_>
          <internalNodes>
            0 -1 70 7.4896641308441758e-05</internalNodes>
          <leafValues>
            -4.2024940252304077e-01 2.3959003388881683e-01</leafValues></_></weakClassifiers></_>
    <!-- stage 10 -->
    <_>
      <maxWeakCount>21</maxWeakCount>
      <stageThreshold>-1.6070305109024048e+00</stageThreshold>
      <weakClassifiers>
        <_>
          <internalNodes>
            0 -1 47 1.3054888404440135e-04</internalNodes>
          <leafValues>
            -3.8461539149284363e-01 5.7931375503540039e-01</leafValues></_>
        <_>
          <internalNodes>
            0 -1 19 7.8898528590798378e-03</internalNodes>
          <leafValues>
            2.3238532245159149e-01 -8.5639899969100952e-01</leafValues></_>
        <_>
          <internalNodes>
            0 -1 7 -1.0475164279341698e-02</internalNodes>
          <leafValues>
            3.2021024823188782e-01 -4.4699057936668396e-01</leafValues></_>
        <_>
          <internalNodes>
            0 -1 73 -9.6060894429683685e-04</internalNodes>
          <leafValues>
            1.3743160665035248e-01 -8.3776110410690308e-01</leafValues></_>
        <_>
          <internalNodes>
            0 -1 66 4.6842969022691250e-03</internalNodes>
          <leafValues>
            1.8431347608566284e-01 -6.6294592618942261e-01</leafValues></_>
        <_>
          <internalNodes>
            0 -1 81 -5.0451903371140361e-04</internalNodes>
          <leafValues>
            -5.3485810756683350e-01 2.1731741726398468e-01</leafValues></_>
        <_>
          <internalNodes>
            0 -1 84 5.2101146138738841e-05</internalNodes>
          <leafValues>
            1.6676138341426849e-01 -7.3958587646484375e-01</leafValues></_>
        <_>
          <internalNodes>
            0 -1 87 6.5632897894829512e-04</internalNodes>
          <leafValues>
            1.2981694936752319e-01 -7.1412974596023560e-01</leafValues></_>
        <_>
          <internalNodes>
            0 -1 42 1.0302700102329254e-03</internalNodes>
          <leafValues>
            -3.8420152664184570e-01 2.5664520263671875e-01</leafValues></_>
        <_>
          <internalNodes>
            0 -1 37 2.0183271262794733e-03</internalNodes>
          <leafValues>
            1.2975728511810303e-01 -8.2808238267898560e-01</leafValues></_>
        <_>
          <internalNodes>
            0 -1 30 -1.0743636812549084e-04</internalNodes>
          <leafValues>
            1.9188132882118225e-01 -4.9695134162902832e-01</leafValues></_>
        <_>
          <internalNodes>
            0 -1 62 7.1668374584987760e-04</internalNodes>
          <leafValues>
            -2.7282997965812683e-01 3.6951678991317749e-01</leafValues></_>
        <_>
          <internalNodes>
            0 -1 23 -7.7682998962700367e-03</internalNodes>
          <leafValues>
            3.7388667464256287e-01 -3.3915215730667114e-01</leafValues></_>
        <_>
          <internalNodes>
            0 -1 20 2.0374166779220104e-03</internalNodes>
          <leafValues>
            1.6544140875339508e-01 -8.3412849903106689e-01</leafValues></_>
        <_>
          <internalNodes>
            0 -1 117 -1.7973333597183228e-03</internalNodes>
          <leafValues>
            3.3853417634963989e-01 -3.1817427277565002e-01</leafValues></_>
        <_>
          <internalNodes>
            0 -1 9 2.4465823080390692e-03</internalNodes>
          <leafValues>
            -1.9484880566596985e-01 5.2530395984649658e-01</leafValues></_>
        <_>
          <internalNodes>
            0 -1 89 -1.1707016965374351e-03</internalNodes>
          <leafValues>
            -7.0956349372863770e-01 1.6215208172798157e-01</leafValues></_>
        <_>
          <internalNodes>
            0 -1 36 -1.1995929526165128e-04</internalNodes>
          <leafValues>
            2.4671034514904022e-01 -4.8852813243865967e-01</leafValues></_>
        <_>
          <internalNodes>
            0 -1 79 1.2690288713201880e-04</internalNodes>
          <leafValues>
            1.2167768925428391e-01 -6.9301652908325195e-01</leafValues></_>
        <_>
          <internalNodes>
            0 -1 108 1.6562001837883145e-04</internalNodes>
          <leafValues>
            -2.8631362318992615e-01 3.2992082834243774e-01</leafValues></_>
        <_>
          <internalNodes>
            0 -1 96 1.3028860848862678e-04</internalNodes>
          <leafValues>
            1.2217927724123001e-01 -7.1408092975616455e-01</leafValues></_></weakClassifiers></_></stages>
  <features>
    <_>
      <rects>
        <_>
          0 2 24 21 -1.</_>
        <_>
          8 9 8 7 9.</_></rects>
      <tilted>0</tilted></_>
    <_>
      <rects>
        <_>
          2 5 20 16 -1.</_>
        <_>
          7 5 10 16 2.</_></rects>
      <tilted>0</tilted></_>
    <_>
      <rects>
        <_>
          2 6 20 13 -1.</_>
        <_>
          7 6 10 13 2.</_></rects>
      <tilted>0</tilted></_>
    <_>
      <rects>
        <_>
          3 5 12 16 -1.</_>
        <_>
          9 5 6 16 2.</_></rects>
      <tilted>0</tilted></_>
    <_>
      <rects>
        <_>
          3 7 20 9 -1.</_>
        <_>
          8 7 10 9 2.</_></rects>
      <tilted>0</tilted></_>
    <_>
      <rects>
        <_>
          3 7 20 12 -1.</_>
        <_>
          8 7 10 12 2.</_></rects>
      <tilted>0</tilted></_>
    <_>
      <rects>
        <_>
          5 1 15 23 -1.</_>
        <_>
          10 1 5 23 3.</_></rects>
      <tilted>0</tilted></_>
    <_>
      <rects>
        <_>
          5 7 4 9 -1.</_>
        <_>
          7 7 2 9 2.</_></rects>
      <tilted>0</tilted></_>
    <_>
      <rects>
        <_>
          6 10 3 5 -1.</_>
        <_>
          7 10 1 5 3.</_></rects>
      <tilted>0</tilted></_>
    <_>
      <rects>
        <_>
          7 12 6 5 -1.</_>
        <_>
          9 12 2 5 3.</_></rects>
      <tilted>0</tilted></_>
    <_>
      <rects>
        <_>
          8 8 6 8 -1.</_>
        <_>
          8 10 6 4 2.</_></rects>
      <tilted>0</tilted></_>
    <_>
      <rects>
        <_>
          8 11 6 4 -1.</_>
        <_>
          10 11 2 4 3.</_></rects>
      <tilted>0</tilted></_>
    <_>
      <rects>
        <_>
          8 12 2 2 -1.</_>
        <_>
          9 12 1 2 2.</_></rects>
      <tilted>0</tilted></_>
    <_>
      <rects>
        <_>
          8 12 9 12 -1.</_>
        <_>
          11 16 3 4 9.</_></rects>
      <tilted>0</tilted></_>
    <_>
      <rects>
        <_>
          8 13 7 3 -1.</_>
        <_>
          8 14 7 1 3.</_></rects>
      <tilted>0</tilted></_>
    <_>
      <rects>
        <_>
          9 5 4 8 -1.</_>
        <_>
          9 7 4 4 2.</_></rects>
      <tilted>0</tilted></_>
    <_>
      <rects>
        <_>
          9 5 5 8 -1.</_>
        <_>
          9 7 5 4 2.</_></rects>
      <tilted>0</tilted></_>
    <_>
      <rects>
        <_>
          9 5 6 8 -1.</_>
        <_>
          9 9 6 4 2.</_></rects>
      <tilted>0</tilted></_>
    <_>
      <rects>
        <_>
          9 5 7 16 -1.</_>
        <_>
          9 9 7 8 2.</_></rects>
      <tilted>0</tilted></_>
    <_>
      <rects>
        <_>
          9 6 6 6 -1.</_>
        <_>
          11 8 2 2 9.</_></rects>
      <tilted>0</tilted></_>
    <_>
      <rects>
        <_>
          9 7 3 6 -1.</_>
        <_>
          10 9 1 2 9.</_></rects>
      <tilted>0</tilted></_>
    <_>
      <rects>
        <_>
          9 7 4 8 -1.</_>
        <_>
          9 9 4 4 2.</_></rects>
      <tilted>0</tilted></_>
    <_>
      <rects>
        <_>
          9 8 6 6 -1.</_>
        <_>
          9 10 6 2 3.</_></rects>
      <tilted>0</tilted></_>
    <_>
      <rects>
        <_>
          9 10 8 9 -1.</_>
        <_>
          11 10 4 9 2.</_></rects>
      <tilted>0</tilted></_>
    <_>
      <rects>
        <_>
          9 10 5 9 -1.</_>
        <_>
          9 13 5 3 3.</_></rects>
      <tilted>0</tilted></_>
    <_>
      <rects>
        <_>
          9 11 2 2 -1.</_>
        <_>
          10 11 1 2 2.</_></rects>
      <tilted>0</tilted></_>
    <_>
      <rects>
        <_>
          9 11 2 3 -1.</_>
        <_>
          10 11 1 3 2.</_></rects>
      <tilted>0</tilted></_>
    <_>
      <rects>
        <_>
          9 11 6 2 -1.</_>
        <_>
          11 11 2 2 3.</_></rects>
      <tilted>0</tilted></_>
    <_>
      <rects>
        <_>
          9 12 6 6 -1.</_>
        <_>
          9 14 6 2 3.</_></rects>
      <tilted>0</tilted></_>
    <_>
      <rects>
        <_>
          9 13 2 1 -1.</_>
        <_>
          10 13 1 1 2.</_></rects>
      <tilted>0</tilted></_>
    <_>
      <rects>
        <_>
          9 13 2 4 -1.</_>
        <_>
          9 14 2 2 2.</_></rects>
      <tilted>0</tilted></_>
    <_>
      <rects>
        <_>
          9 13 5 3 -1.</_>
        <_>
          9 14 5 1 3.</_></rects>
      <tilted>0</tilted></_>
    <_>
      <rects>
        <_>
          9 13 8 9 -1.</_>
        <_>
          9 16 8 3 3.</_></rects>
      <tilted>0</tilted></_>
    <_>
      <rects>
        <_>
          9 14 4 2 -1.</_>
        <_>
          10 14 2 2 2.</_></rects>
      <tilted>0</tilted></_>
    <_>
      <rects>
        <_>
          9 14 5 3 -1.</_>
        <_>
          9 15 5 1 3.</_></rects>
      <tilted>0</tilted></_>
    <_>
      <rects>
        <_>
          9 14 6 4 -1.</_>
        <_>
          9 15 6 2 2.</_></rects>
      <tilted>0</tilted></_>
    <_>
      <rects>
        <_>
          9 15 5 3 -1.</_>
        <_>
          9 16 5 1 3.</_></rects>
      <tilted>0</tilted></_>
    <_>
      <rects>
        <_>
          10 5 6 12 -1.</_>
        <_>
          12 9 2 4 9.</_></rects>
      <tilted>0</tilted></_>
    <_>
      <rects>
        <_>
          10 6 2 8 -1.</_>
        <_>
          10 8 2 4 2.</_></rects>
      <tilted>0</tilted></_>
    <_>
      <rects>
        <_>
          10 6 4 6 -1.</_>
        <_>
          10 8 4 2 3.</_></rects>
      <tilted>0</tilted></_>
    <_>
      <rects>
        <_>
          10 6 5 8 -1.</_>
        <_>
          10 8 5 4 2.</_></rects>
      <tilted>0</tilted></_>
    <_>
      <rects>
        <_>
          10 7 6 3 -1.</_>
        <_>
          12 7 2 3 3.</_></rects>
      <tilted>0</tilted></_>
    <_>
      <rects>
        <_>
          10 8 6 4 -1.</_>
        <_>
          12 8 2 4 3.</_></rects>
      <tilted>0</tilted></_>
    <_>
      <rects>
        <_>
          10 9 3 3 -1.</_>
        <_>
          11 10 1 1 9.</_></rects>
      <tilted>0</tilted></_>
    <_>
      <rects>
        <_>
          10 9 3 4 -1.</_>
        <_>
          10 11 3 2 2.</_></rects>
      <tilted>0</tilted></_>
    <_>
      <rects>
        <_>
          10 9 4 4 -1.</_>
        <_>
          10 11 4 2 2.</_></rects>
      <tilted>0</tilted></_>
    <_>
      <rects>
        <_>
          10 10 4 2 -1.</_>
        <_>
          10 11 4 1 2.</_></rects>
      <tilted>0</tilted></_>
    <_>
      <rects>
        <_>
          10 11 2 3 -1.</_>
        <_>
          11 11 1 3 2.</_></rects>
      <tilted>0</tilted></_>
    <_>
      <rects>
        <_>
          10 11 5 2 -1.</_>
        <_>
          10 12 5 1 2.</_></rects>
      <tilted>0</tilted></_>
    <_>
      <rects>
        <_>
          10 11 5 4 -1.</_>
        <_>
          10 12 5 2 2.</_></rects>
      <tilted>0</tilted></_>
    <_>
      <rects>
        <_>
          10 11 6 3 -1.</_>
        <_>
          10 12 6 1 3.</_></rects>
      <tilted>0</tilted></_>
    <_>
      <rects>
        <_>
          10 12 1 4 -1.</_>
        <_>
          10 13 1 2 2.</_></rects>
      <tilted>0</tilted></_>
    <_>
      <rects>
        <_>
          10 12 2 2 -1.</_>
        <_>
          11 12 1 2 2.</_></rects>
      <tilted>0</tilted></_>
    <_>
      <rects>
        <_>
          10 12 4 4 -1.</_>
        <_>
          10 13 4 2 2.</_></rects>
      <tilted>0</tilted></_>
    <_>
      <rects>
        <_>
          10 12 5 3 -1.</_>
        <_>
          10 13 5 1 3.</_></rects>
      <tilted>0</tilted></_>
    <_>
      <rects>
        <_>
          10 12 5 4 -1.</_>
        <_>
          10 13 5 2 2.</_></rects>
      <tilted>0</tilted></_>
    <_>
      <rects>
        <_>
          10 13 2 4 -1.</_>
        <_>
          10 14 2 2 2.</_></rects>
      <tilted>0</tilted></_>
    <_>
      <rects>
        <_>
          10 13 4 3 -1.</_>
        <_>
          10 14 4 1 3.</_></rects>
      <tilted>0</tilted></_>
    <_>
      <rects>
        <_>
          10 13 4 4 -1.</_>
        <_>
          10 14 4 2 2.</_></rects>
      <tilted>0</tilted></_>
    <_>
      <rects>
        <_>
          10 14 3 3 -1.</_>
        <_>
          11 14 1 3 3.</_></rects>
      <tilted>0</tilted></_>
    <_>
      <rects>
        <_>
          10 14 3 4 -1.</_>
        <_>
          10 15 3 2 2.</_></rects>
      <tilted>0</tilted></_>
    <_>
      <rects>
        <_>
          10 15 4 2 -1.</_>
        <_>
          11 15 2 2 2.</_></rects>
      <tilted>0</tilted></_>
    <_>
      <rects>
        <_>
          10 15 6 2 -1.</_>
        <_>
          12 15 2 2 3.</_></rects>
      <tilted>0</tilted></_>
    <_>
      <rects>
        <_>
          10 16 5 4 -1.</_>
        <_>
          10 18 5 2 2.</_></rects>
      <tilted>0</tilted></_>
    <_>
      <rects>
        <_>
          11 5 2 6 -1.</_>
        <_>
          11 7 2 2 3.</_></rects>
      <tilted>0</tilted></_>
    <_>
      <rects>
        <_>
          11 5 4 4 -1.</_>
        <_>
          11 7 4 2 2.</_></rects>
      <tilted>0</tilted></_>
    <_>
      <rects>
        <_>
          11 6 5 2 -1.</_>
        <_>
          11 6 5 1 2.</_></rects>
      <tilted>1</tilted></_>
    <_>
      <rects>
        <_>
          11 7 3 9 -1.</_>
        <_>
          12 10 1 3 9.</_></rects>
      <tilted>0</tilted></_>
    <_>
      <rects>
        <_>
          11 7 4 9 -1.</_>
        <_>
          11 10 4 3 3.</_></rects>
      <tilted>0</tilted></_>
    <_>
      <rects>
        <_>
          11 8 3 9 -1.</_>
        <_>
          12 11 1 3 9.</_></rects>
      <tilted>0</tilted></_>
    <_>
      <rects>
        <_>
          11 8 4 4 -1.</_>
        <_>
          12 8 2 4 2.</_></rects>
      <tilted>0</tilted></_>
    <_>
      <rects>
        <_>
          11 8 3 12 -1.</_>
        <_>
          12 8 1 12 3.</_></rects>
      <tilted>0</tilted></_>
    <_>
      <rects>
        <_>
          11 8 3 6 -1.</_>
        <_>
          11 11 3 3 2.</_></rects>
      <tilted>0</tilted></_>
    <_>
      <rects>
        <_>
          11 9 4 4 -1.</_>
        <_>
          11 11 4 2 2.</_></rects>
      <tilted>0</tilted></_>
    <_>
      <rects>
        <_>
          11 11 2 3 -1.</_>
        <_>
          11 12 2 1 3.</_></rects>
      <tilted>0</tilted></_>
    <_>
      <rects>
        <_>
          11 11 3 3 -1.</_>
        <_>
          11 12 3 1 3.</_></rects>
      <tilted>0</tilted></_>
    <_>
      <rects>
        <_>
          11 12 2 4 -1.</_>
        <_>
          11 13 2 2 2.</_></rects>
      <tilted>0</tilted></_>
    <_>
      <rects>
        <_>
          11 12 4 2 -1.</_>
        <_>
          11 13 4 1 2.</_></rects>
      <tilted>0</tilted></_>
    <_>
      <rects>
        <_>
          11 12 4 3 -1.</_>
        <_>
          11 13 4 1 3.</_></rects>
      <tilted>0</tilted></_>
    <_>
      <rects>
        <_>
          11 13 2 3 -1.</_>
        <_>
          11 14 2 1 3.</_></rects>
      <tilted>0</tilted></_>
    <_>
      <rects>
        <_>
          11 13 5 4 -1.</_>
        <_>
          11 14 5 2 2.</_></rects>
      <tilted>0</tilted></_>
    <_>
      <rects>
        <_>
          11 14 3 3 -1.</_>
        <_>
          12 15 1 1 9.</_></rects>
      <tilted>0</tilted></_>
    <_>
      <rects>
        <_>
          11 14 4 2 -1.</_>
        <_>
          12 14 2 2 2.</_></rects>
      <tilted>0</tilted></_>
    <_>
      <rects>
        <_>
          11 14 4 4 -1.</_>
        <_>
          12 14 2 4 2.</_></rects>
      <tilted>0</tilted></_>
    <_>
      <rects>
        <_>
          11 14 2 3 -1.</_>
        <_>
          11 15 2 1 3.</_></rects>
      <tilted>0</tilted></_>
    <_>
      <rects>
        <_>
          11 14 3 6 -1.</_>
        <_>
          11 17 3 3 2.</_></rects>
      <tilted>0</tilted></_>
    <_>
      <rects>
        <_>
          11 15 1 3 -1.</_>
        <_>
          11 16 1 1 3.</_></rects>
      <tilted>0</tilted></_>
    <_>
      <rects>
        <_>
          11 15 3 3 -1.</_>
        <_>
          12 16 1 1 9.</_></rects>
      <tilted>0</tilted></_>
    <_>
      <rects>
        <_>
          11 15 3 2 -1.</_>
        <_>
          11 16 3 1 2.</_></rects>
      <tilted>0</tilted></_>
    <_>
      <rects>
        <_>
          11 15 4 3 -1.</_>
        <_>
          11 16 4 1 3.</_></rects>
      <tilted>0</tilted></_>
    <_>
      <rects>
        <_>
          11 16 3 4 -1.</_>
        <_>
          11 18 3 2 2.</_></rects>
      <tilted>0</tilted></_>
    <_>
      <rects>
        <_>
          12 5 1 2 -1.</_>
        <_>
          12 6 1 1 2.</_></rects>
      <tilted>0</tilted></_>
    <_>
      <rects>
        <_>
          12 6 3 9 -1.</_>
        <_>
          12 9 3 3 3.</_></rects>
      <tilted>0</tilted></_>
    <_>
      <rects>
        <_>
          12 7 2 6 -1.</_>
        <_>
          12 10 2 3 2.</_></rects>
      <tilted>0</tilted></_>
    <_>
      <rects>
        <_>
          12 9 2 6 -1.</_>
        <_>
          12 12 2 3 2.</_></rects>
      <tilted>0</tilted></_>
    <_>
      <rects>
        <_>
          12 11 1 3 -1.</_>
        <_>
          12 12 1 1 3.</_></rects>
      <tilted>0</tilted></_>
    <_>
      <rects>
        <_>
          12 11 2 3 -1.</_>
        <_>
          12 12 2 1 3.</_></rects>
      <tilted>0</tilted></_>
    <_>
      <rects>
        <_>
          12 12 2 6 -1.</_>
        <_>
          12 14 2 2 3.</_></rects>
      <tilted>0</tilted></_>
    <_>
      <rects>
        <_>
          12 12 3 3 -1.</_>
        <_>
          12 13 3 1 3.</_></rects>
      <tilted>0</tilted></_>
    <_>
      <rects>
        <_>
          12 13 3 4 -1.</_>
        <_>
          12 14 3 2 2.</_></rects>
      <tilted>0</tilted></_>
    <_>
      <rects>
        <_>
          12 14 2 4 -1.</_>
        <_>
          12 15 2 2 2.</_></rects>
      <tilted>0</tilted></_>
    <_>
      <rects>
        <_>
          12 15 4 4 -1.</_>
        <_>
          12 17 4 2 2.</_></rects>
      <tilted>0</tilted></_>
    <_>
      <rects>
        <_>
          13 5 8 13 -1.</_>
        <_>
          17 5 4 13 2.</_></rects>
      <tilted>0</tilted></_>
    <_>
      <rects>
        <_>
          13 6 2 8 -1.</_>
        <_>
          13 8 2 4 2.</_></rects>
      <tilted>0</tilted></_>
    <_>
      <rects>
        <_>
          13 11 2 3 -1.</_>
        <_>
          14 11 1 3 2.</_></rects>
      <tilted>0</tilted></_>
    <_>
      <rects>
        <_>
          13 11 1 9 -1.</_>
        <_>
          13 14 1 3 3.</_></rects>
      <tilted>0</tilted></_>
    <_>
      <rects>
        <_>
          13 12 2 2 -1.</_>
        <_>
          14 12 1 2 2.</_></rects>
      <tilted>0</tilted></_>
    <_>
      <rects>
        <_>
          13 13 2 4 -1.</_>
        <_>
          13 14 2 2 2.</_></rects>
      <tilted>0</tilted></_>
    <_>
      <rects>
        <_>
          13 18 4 1 -1.</_>
        <_>
          14 18 2 1 2.</_></rects>
      <tilted>0</tilted></_>
    <_>
      <rects>
        <_>
          14 3 8 5 -1.</_>
        <_>
          14 3 4 5 2.</_></rects>
      <tilted>1</tilted></_>
    <_>
      <rects>
        <_>
          14 4 1 4 -1.</_>
        <_>
          14 6 1 2 2.</_></rects>
      <tilted>0</tilted></_>
    <_>
      <rects>
        <_>
          14 6 2 2 -1.</_>
        <_>
          14 7 2 1 2.</_></rects>
      <tilted>0</tilted></_>
    <_>
      <rects>
        <_>
          14 11 2 2 -1.</_>
        <_>
          15 11 1 2 2.</_></rects>
      <tilted>0</tilted></_>
    <_>
      <rects>
        <_>
          14 11 2 4 -1.</_>
        <_>
          15 11 1 4 2.</_></rects>
      <tilted>0</tilted></_>
    <_>
      <rects>
        <_>
          14 12 2 4 -1.</_>
        <_>
          14 13 2 2 2.</_></rects>
      <tilted>0</tilted></_>
    <_>
      <rects>
        <_>
          14 13 2 1 -1.</_>
        <_>
          15 13 1 1 2.</_></rects>
      <tilted>0</tilted></_>
    <_>
      <rects>
        <_>
          15 8 2 6 -1.</_>
        <_>
          15 10 2 2 3.</_></rects>
      <tilted>0</tilted></_>
    <_>
      <rects>
        <_>
          15 11 4 4 -1.</_>
        <_>
          16 11 2 4 2.</_></rects>
      <tilted>0</tilted></_>
    <_>
      <rects>
        <_>
          15 12 2 2 -1.</_>
        <_>
          16 12 1 2 2.</_></rects>
      <tilted>0</tilted></_>
    <_>
      <rects>
        <_>
          15 13 1 3 -1.</_>
        <_>
          14 14 1 1 3.</_></rects>
      <tilted>1</tilted></_>
    <_>
      <rects>
        <_>
          16 11 3 3 -1.</_>
        <_>
          17 11 1 3 3.</_></rects>
      <tilted>0</tilted></_></features></cascade>
</opencv_storage>
